<?xml version="1.0"?>
<opencv_storage>
<cascade>
  <stageType>BOOST</stageType>
  <featureType>HAAR</featureType>
  <height>15</height>
  <width>15</width>
  <stageParams>
    <boostType>GAB</boostType>
    <minHitRate>9.9500000476837158e-01</minHitRate>
    <maxFalseAlarm>5.0000000000000000e-01</maxFalseAlarm>
    <weightTrimRate>9.4999999999999996e-01</weightTrimRate>
    <maxDepth>1</maxDepth>
    <maxWeakCount>100</maxWeakCount></stageParams>
  <featureParams>
    <maxCatCount>0</maxCatCount>
    <featSize>1</featSize>
    <mode>BASIC</mode></featureParams>
  <stageNum>10</stageNum>
  <stages>
    <!-- stage 0 -->
    <_>
      <maxWeakCount>2</maxWeakCount>
      <stageThreshold>-1.1526197195053101e-01</stageThreshold>
      <weakClassifiers>
        <_>
          <internalNodes>
            0 -1 5 -7.4995912611484528e-02</internalNodes>
          <leafValues>
            8.3343321084976196e-01 -8.0848151445388794e-01</leafValues></_>
        <_>
          <internalNodes>
            0 -1 21 -9.4828642904758453e-03</internalNodes>
          <leafValues>
            6.9321954250335693e-01 -8.8054925203323364e-01</leafValues></_></weakClassifiers></_>
    <!-- stage 1 -->
    <_>
      <maxWeakCount>4</maxWeakCount>
      <stageThreshold>-6.0763275623321533e-01</stageThreshold>
      <weakClassifiers>
        <_>
          <internalNodes>
            0 -1 16 -1.2525290250778198e-01</internalNodes>
          <leafValues>
            8.2762837409973145e-01 -7.2513091564178467e-01</leafValues></_>
        <_>
          <internalNodes>
            0 -1 32 3.1099899206310511e-03</internalNodes>
          <leafValues>
            -7.9999917745590210e-01 5.0357401371002197e-01</leafValues></_>
        <_>
          <internalNodes>
            0 -1 6 -1.4504189789295197e-01</internalNodes>
          <leafValues>
            5.8077639341354370e-01 -5.3504496812820435e-01</leafValues></_>
        <_>
          <internalNodes>
            0 -1 42 -9.2498892627190799e-05</internalNodes>
          <leafValues>
            -9.6685230731964111e-01 3.3778405189514160e-01</leafValues></_></weakClassifiers></_>
    <!-- stage 2 -->
    <_>
      <maxWeakCount>4</maxWeakCount>
      <stageThreshold>-6.6928589344024658e-01</stageThreshold>
      <weakClassifiers>
        <_>
          <internalNodes>
            0 -1 46 -3.9023578166961670e-02</internalNodes>
          <leafValues>
            6.8538075685501099e-01 -7.2046589851379395e-01</leafValues></_>
        <_>
          <internalNodes>
            0 -1 3 -1.2141676247119904e-01</internalNodes>
          <leafValues>
            6.5539938211441040e-01 -5.3575229644775391e-01</leafValues></_>
        <_>
          <internalNodes>
            0 -1 14 -4.1677467525005341e-03</internalNodes>
          <leafValues>
            3.3673414587974548e-01 -9.2038333415985107e-01</leafValues></_>
        <_>
          <internalNodes>
            0 -1 31 1.4558937982656062e-04</internalNodes>
          <leafValues>
            2.5019818544387817e-01 -9.3747144937515259e-01</leafValues></_></weakClassifiers></_>
    <!-- stage 3 -->
    <_>
      <maxWeakCount>5</maxWeakCount>
      <stageThreshold>-1.2420146465301514e+00</stageThreshold>
      <weakClassifiers>
        <_>
          <internalNodes>
            0 -1 15 -5.0063010305166245e-02</internalNodes>
          <leafValues>
            6.9519340991973877e-01 -5.5619597434997559e-01</leafValues></_>
        <_>
          <internalNodes>
            0 -1 58 8.5432280320674181e-04</internalNodes>
          <leafValues>
            -7.7531832456588745e-01 4.1172447800636292e-01</leafValues></_>
        <_>
          <internalNodes>
            0 -1 59 1.3210775796324015e-04</internalNodes>
          <leafValues>
            3.1766295433044434e-01 -9.0136873722076416e-01</leafValues></_>
        <_>
          <internalNodes>
            0 -1 55 1.8885223835241050e-04</internalNodes>
          <leafValues>
            1.5197840332984924e-01 -9.2765837907791138e-01</leafValues></_>
        <_>
          <internalNodes>
            0 -1 1 -1.0405896604061127e-01</internalNodes>
          <leafValues>
            3.9259955286979675e-01 -5.1990544795989990e-01</leafValues></_></weakClassifiers></_>
    <!-- stage 4 -->
    <_>
      <maxWeakCount>6</maxWeakCount>
      <stageThreshold>-9.1837149858474731e-01</stageThreshold>
      <weakClassifiers>
        <_>
          <internalNodes>
            0 -1 30 3.1649941229261458e-04</internalNodes>
          <leafValues>
            5.1714283227920532e-01 -9.5333331823348999e-01</leafValues></_>
        <_>
          <internalNodes>
            0 -1 33 -5.7920578867197037e-02</internalNodes>
          <leafValues>
            4.9365022778511047e-01 -5.5644768476486206e-01</leafValues></_>
        <_>
          <internalNodes>
            0 -1 10 -3.7963889539241791e-02</internalNodes>
          <leafValues>
            3.6885002255439758e-01 -6.9711089134216309e-01</leafValues></_>
        <_>
          <internalNodes>
            0 -1 37 1.9515224266797304e-04</internalNodes>
          <leafValues>
            2.1609623730182648e-01 -9.2271751165390015e-01</leafValues></_>
        <_>
          <internalNodes>
            0 -1 47 -1.5121046453714371e-03</internalNodes>
          <leafValues>
            2.9703694581985474e-01 -6.5225321054458618e-01</leafValues></_>
        <_>
          <internalNodes>
            0 -1 12 -7.0420384872704744e-04</internalNodes>
          <leafValues>
            2.7844780683517456e-01 -6.9508898258209229e-01</leafValues></_></weakClassifiers></_>
    <!-- stage 5 -->
    <_>
      <maxWeakCount>7</maxWeakCount>
      <stageThreshold>-7.6809734106063843e-01</stageThreshold>
      <weakClassifiers>
        <_>
          <internalNodes>
            0 -1 29 2.4064112221822143e-04</internalNodes>
          <leafValues>
            5.5087721347808838e-01 -7.3827159404754639e-01</leafValues></_>
        <_>
          <internalNodes>
            0 -1 7 -9.7310185432434082e-02</internalNodes>
          <leafValues>
            5.5444329977035522e-01 -4.6682566404342651e-01</leafValues></_>
        <_>
          <internalNodes>
            0 -1 8 -4.7072879970073700e-02</internalNodes>
          <leafValues>
            5.1669865846633911e-01 -4.3643131852149963e-01</leafValues></_>
        <_>
          <internalNodes>
            0 -1 41 3.1986879184842110e-04</internalNodes>
          <leafValues>
            2.0968604087829590e-01 -9.2242079973220825e-01</leafValues></_>
        <_>
          <internalNodes>
            0 -1 28 -8.9708238374441862e-04</internalNodes>
          <leafValues>
            2.6558539271354675e-01 -7.1542787551879883e-01</leafValues></_>
        <_>
          <internalNodes>
            0 -1 48 -1.2472080998122692e-03</internalNodes>
          <leafValues>
            2.2455064952373505e-01 -8.4125787019729614e-01</leafValues></_>
        <_>
          <internalNodes>
            0 -1 34 -2.8038932941854000e-04</internalNodes>
          <leafValues>
            -8.3207154273986816e-01 2.1814870834350586e-01</leafValues></_></weakClassifiers></_>
    <!-- stage 6 -->
    <_>
      <maxWeakCount>6</maxWeakCount>
      <stageThreshold>-7.4184799194335938e-01</stageThreshold>
      <weakClassifiers>
        <_>
          <internalNodes>
            0 -1 50 2.4975882843136787e-04</internalNodes>
          <leafValues>
            5.2674698829650879e-01 -9.0153849124908447e-01</leafValues></_>
        <_>
          <internalNodes>
            0 -1 0 -1.9427385926246643e-01</internalNodes>
          <leafValues>
            4.9105393886566162e-01 -4.7623661160469055e-01</leafValues></_>
        <_>
          <internalNodes>
            0 -1 52 2.4004271836020052e-04</internalNodes>
          <leafValues>
            2.9773858189582825e-01 -8.3277475833892822e-01</leafValues></_>
        <_>
          <internalNodes>
            0 -1 16 -2.2029653191566467e-01</internalNodes>
          <leafValues>
            3.8774192333221436e-01 -4.9462071061134338e-01</leafValues></_>
        <_>
          <internalNodes>
            0 -1 20 -8.7175244698300958e-04</internalNodes>
          <leafValues>
            2.9816177487373352e-01 -5.6142652034759521e-01</leafValues></_>
        <_>
          <internalNodes>
            0 -1 22 -8.7563937995582819e-04</internalNodes>
          <leafValues>
            2.3687532544136047e-01 -6.7868095636367798e-01</leafValues></_></weakClassifiers></_>
    <!-- stage 7 -->
    <_>
      <maxWeakCount>9</maxWeakCount>
      <stageThreshold>-1.0799163579940796e+00</stageThreshold>
      <weakClassifiers>
        <_>
          <internalNodes>
            0 -1 44 6.7674592137336731e-03</internalNodes>
          <leafValues>
            -5.0840336084365845e-01 5.4158002138137817e-01</leafValues></_>
        <_>
          <internalNodes>
            0 -1 23 -7.2702066972851753e-04</internalNodes>
          <leafValues>
            2.6821044087409973e-01 -7.8388696908950806e-01</leafValues></_>
        <_>
          <internalNodes>
            0 -1 13 -1.1211938690394163e-03</internalNodes>
          <leafValues>
            2.7169862389564514e-01 -6.8006330728530884e-01</leafValues></_>
        <_>
          <internalNodes>
            0 -1 57 1.4565478777512908e-03</internalNodes>
          <leafValues>
            -6.0270214080810547e-01 2.5280958414077759e-01</leafValues></_>
        <_>
          <internalNodes>
            0 -1 43 1.9320948922540992e-04</internalNodes>
          <leafValues>
            1.7995469272136688e-01 -9.3949371576309204e-01</leafValues></_>
        <_>
          <internalNodes>
            0 -1 9 -9.2219319194555283e-03</internalNodes>
          <leafValues>
            4.7262576222419739e-01 -3.5245612263679504e-01</leafValues></_>
        <_>
          <internalNodes>
            0 -1 35 -2.6149494806304574e-04</internalNodes>
          <leafValues>
            -8.9765399694442749e-01 1.5762697160243988e-01</leafValues></_>
        <_>
          <internalNodes>
            0 -1 11 -1.6032542334869504e-03</internalNodes>
          <leafValues>
            2.9380789399147034e-01 -4.3287649750709534e-01</leafValues></_>
        <_>
          <internalNodes>
            0 -1 39 1.0268078767694533e-04</internalNodes>
          <leafValues>
            1.0474617779254913e-01 -9.3343430757522583e-01</leafValues></_></weakClassifiers></_>
    <!-- stage 8 -->
    <_>
      <maxWeakCount>10</maxWeakCount>
      <stageThreshold>-1.0196065902709961e+00</stageThreshold>
      <weakClassifiers>
        <_>
          <internalNodes>
            0 -1 30 -1.3176475185900927e-03</internalNodes>
          <leafValues>
            -5.3267323970794678e-01 5.6411612033843994e-01</leafValues></_>
        <_>
          <internalNodes>
            0 -1 25 -9.9065495305694640e-05</internalNodes>
          <leafValues>
            2.2634746134281158e-01 -9.0389698743820190e-01</leafValues></_>
        <_>
          <internalNodes>
            0 -1 54 -5.0884974189102650e-04</internalNodes>
          <leafValues>
            2.0896048843860626e-01 -7.4410015344619751e-01</leafValues></_>
        <_>
          <internalNodes>
            0 -1 53 3.0822685221210122e-04</internalNodes>
          <leafValues>
            1.1979451030492783e-01 -9.4968867301940918e-01</leafValues></_>
        <_>
          <internalNodes>
            0 -1 27 -8.1516634672880173e-03</internalNodes>
          <leafValues>
            3.8072225451469421e-01 -3.7141028046607971e-01</leafValues></_>
        <_>
          <internalNodes>
            0 -1 56 -2.1027591079473495e-02</internalNodes>
          <leafValues>
            4.7932657599449158e-01 -3.1872257590293884e-01</leafValues></_>
        <_>
          <internalNodes>
            0 -1 18 -1.4416098594665527e-02</internalNodes>
          <leafValues>
            5.2107292413711548e-01 -2.7919855713844299e-01</leafValues></_>
        <_>
          <internalNodes>
            0 -1 36 1.0033654689323157e-04</internalNodes>
          <leafValues>
            1.4297030866146088e-01 -9.4082945585250854e-01</leafValues></_>
        <_>
          <internalNodes>
            0 -1 4 -3.1341146677732468e-02</internalNodes>
          <leafValues>
            4.9214270710945129e-01 -3.0067053437232971e-01</leafValues></_>
        <_>
          <internalNodes>
            0 -1 52 -1.1853824835270643e-03</internalNodes>
          <leafValues>
            -9.0126669406890869e-01 1.1845091730356216e-01</leafValues></_></weakClassifiers></_>
    <!-- stage 9 -->
    <_>
      <maxWeakCount>13</maxWeakCount>
      <stageThreshold>-1.0773396492004395e+00</stageThreshold>
      <weakClassifiers>
        <_>
          <internalNodes>
            0 -1 49 -6.6788922995328903e-03</internalNodes>
          <leafValues>
            5.2260029315948486e-01 -5.3132247924804688e-01</leafValues></_>
        <_>
          <internalNodes>
            0 -1 19 2.2078552283346653e-03</internalNodes>
          <leafValues>
            -8.2520002126693726e-01 2.1390277147293091e-01</leafValues></_>
        <_>
          <internalNodes>
            0 -1 2 -1.9634257256984711e-01</internalNodes>
          <leafValues>
            2.3871690034866333e-01 -4.9418079853057861e-01</leafValues></_>
        <_>
          <internalNodes>
            0 -1 38 1.0215993825113401e-04</internalNodes>
          <leafValues>
            1.3749904930591583e-01 -7.9199421405792236e-01</leafValues></_>
        <_>
          <internalNodes>
            0 -1 45 3.0005551874637604e-02</internalNodes>
          <leafValues>
            -3.4752768278121948e-01 3.3187407255172729e-01</leafValues></_>
        <_>
          <internalNodes>
            0 -1 51 -7.2121016273740679e-05</internalNodes>
          <leafValues>
            1.9502755999565125e-01 -6.0246044397354126e-01</leafValues></_>
        <_>
          <internalNodes>
            0 -1 24 8.3417398855090141e-05</internalNodes>
          <leafValues>
            1.3462771475315094e-01 -7.4400657415390015e-01</leafValues></_>
        <_>
          <internalNodes>
            0 -1 26 -6.4080972224473953e-03</internalNodes>
          <leafValues>
            -7.3070251941680908e-01 1.4971534907817841e-01</leafValues></_>
        <_>
          <internalNodes>
            0 -1 61 -1.0569498408585787e-03</internalNodes>
          <leafValues>
            3.0367860198020935e-01 -3.6394536495208740e-01</leafValues></_>
        <_>
          <internalNodes>
            0 -1 17 -7.6103555038571358e-03</internalNodes>
          <leafValues>
            4.6428379416465759e-01 -2.9654783010482788e-01</leafValues></_>
        <_>
          <internalNodes>
            0 -1 55 1.4315212320070714e-04</internalNodes>
          <leafValues>
            1.6437724232673645e-01 -7.9510402679443359e-01</leafValues></_>
        <_>
          <internalNodes>
            0 -1 60 1.1411780724301934e-04</internalNodes>
          <leafValues>
            1.2359530478715897e-01 -7.2437489032745361e-01</leafValues></_>
        <_>
          <internalNodes>
            0 -1 40 -2.6429007994011045e-04</internalNodes>
          <leafValues>
            1.5325836837291718e-01 -6.8444782495498657e-01</leafValues></_></weakClassifiers></_></stages>
  <features>
    <_>
      <rects>
        <_>
          0 6 15 3 -1.</_>
        <_>
          5 6 5 3 3.</_></rects>
      <tilted>0</tilted></_>
    <_>
      <rects>
        <_>
          0 6 10 4 -1.</_>
        <_>
          5 6 5 4 2.</_></rects>
      <tilted>0</tilted></_>
    <_>
      <rects>
        <_>
          0 6 15 4 -1.</_>
        <_>
          5 6 5 4 3.</_></rects>
      <tilted>0</tilted></_>
    <_>
      <rects>
        <_>
          1 5 12 3 -1.</_>
        <_>
          5 5 4 3 3.</_></rects>
      <tilted>0</tilted></_>
    <_>
      <rects>
        <_>
          2 4 6 4 -1.</_>
        <_>
          4 4 2 4 3.</_></rects>
      <tilted>0</tilted></_>
    <_>
      <rects>
        <_>
          2 6 12 3 -1.</_>
        <_>
          6 6 4 3 3.</_></rects>
      <tilted>0</tilted></_>
    <_>
      <rects>
        <_>
          3 7 12 4 -1.</_>
        <_>
          7 7 4 4 3.</_></rects>
      <tilted>0</tilted></_>
    <_>
      <rects>
        <_>
          3 8 12 2 -1.</_>
        <_>
          7 8 4 2 3.</_></rects>
      <tilted>0</tilted></_>
    <_>
      <rects>
        <_>
          4 0 4 6 -1.</_>
        <_>
          4 3 4 3 2.</_></rects>
      <tilted>0</tilted></_>
    <_>
      <rects>
        <_>
          4 1 4 2 -1.</_>
        <_>
          4 2 4 1 2.</_></rects>
      <tilted>0</tilted></_>
    <_>
      <rects>
        <_>
          4 1 5 9 -1.</_>
        <_>
          4 4 5 3 3.</_></rects>
      <tilted>0</tilted></_>
    <_>
      <rects>
        <_>
          4 5 3 3 -1.</_>
        <_>
          5 5 1 3 3.</_></rects>
      <tilted>0</tilted></_>
    <_>
      <rects>
        <_>
          5 6 3 3 -1.</_>
        <_>
          6 6 1 3 3.</_></rects>
      <tilted>0</tilted></_>
    <_>
      <rects>
        <_>
          5 8 2 1 -1.</_>
        <_>
          6 8 1 1 2.</_></rects>
      <tilted>0</tilted></_>
    <_>
      <rects>
        <_>
          5 8 4 2 -1.</_>
        <_>
          7 8 2 2 2.</_></rects>
      <tilted>0</tilted></_>
    <_>
      <rects>
        <_>
          6 0 2 12 -1.</_>
        <_>
          6 4 2 4 3.</_></rects>
      <tilted>0</tilted></_>
    <_>
      <rects>
        <_>
          6 0 4 15 -1.</_>
        <_>
          6 5 4 5 3.</_></rects>
      <tilted>0</tilted></_>
    <_>
      <rects>
        <_>
          6 1 2 2 -1.</_>
        <_>
          6 2 2 1 2.</_></rects>
      <tilted>0</tilted></_>
    <_>
      <rects>
        <_>
          6 1 2 6 -1.</_>
        <_>
          6 3 2 2 3.</_></rects>
      <tilted>0</tilted></_>
    <_>
      <rects>
        <_>
          6 5 1 6 -1.</_>
        <_>
          6 8 1 3 2.</_></rects>
      <tilted>0</tilted></_>
    <_>
      <rects>
        <_>
          6 5 4 2 -1.</_>
        <_>
          6 5 2 1 2.</_>
        <_>
          8 6 2 1 2.</_></rects>
      <tilted>0</tilted></_>
    <_>
      <rects>
        <_>
          6 5 4 6 -1.</_>
        <_>
          6 5 2 3 2.</_>
        <_>
          8 8 2 3 2.</_></rects>
      <tilted>0</tilted></_>
    <_>
      <rects>
        <_>
          6 6 2 4 -1.</_>
        <_>
          6 6 1 2 2.</_>
        <_>
          7 8 1 2 2.</_></rects>
      <tilted>0</tilted></_>
    <_>
      <rects>
        <_>
          6 6 4 2 -1.</_>
        <_>
          6 6 2 1 2.</_>
        <_>
          8 7 2 1 2.</_></rects>
      <tilted>0</tilted></_>
    <_>
      <rects>
        <_>
          6 7 2 2 -1.</_>
        <_>
          6 7 1 1 2.</_>
        <_>
          7 8 1 1 2.</_></rects>
      <tilted>0</tilted></_>
    <_>
      <rects>
        <_>
          6 7 3 2 -1.</_>
        <_>
          7 7 1 2 3.</_></rects>
      <tilted>0</tilted></_>
    <_>
      <rects>
        <_>
          6 7 4 2 -1.</_>
        <_>
          6 7 2 1 2.</_>
        <_>
          8 8 2 1 2.</_></rects>
      <tilted>0</tilted></_>
    <_>
      <rects>
        <_>
          6 8 4 4 -1.</_>
        <_>
          6 8 2 2 2.</_>
        <_>
          8 10 2 2 2.</_></rects>
      <tilted>0</tilted></_>
    <_>
      <rects>
        <_>
          6 9 2 1 -1.</_>
        <_>
          7 9 1 1 2.</_></rects>
      <tilted>0</tilted></_>
    <_>
      <rects>
        <_>
          7 5 2 3 -1.</_>
        <_>
          7 6 2 1 3.</_></rects>
      <tilted>0</tilted></_>
    <_>
      <rects>
        <_>
          7 6 1 3 -1.</_>
        <_>
          7 7 1 1 3.</_></rects>
      <tilted>0</tilted></_>
    <_>
      <rects>
        <_>
          7 6 2 2 -1.</_>
        <_>
          7 6 1 1 2.</_>
        <_>
          8 7 1 1 2.</_></rects>
      <tilted>0</tilted></_>
    <_>
      <rects>
        <_>
          7 6 4 1 -1.</_>
        <_>
          9 6 2 1 2.</_></rects>
      <tilted>0</tilted></_>
    <_>
      <rects>
        <_>
          7 6 6 9 -1.</_>
        <_>
          7 9 6 3 3.</_></rects>
      <tilted>0</tilted></_>
    <_>
      <rects>
        <_>
          7 7 2 1 -1.</_>
        <_>
          8 7 1 1 2.</_></rects>
      <tilted>0</tilted></_>
    <_>
      <rects>
        <_>
          7 7 1 2 -1.</_>
        <_>
          7 8 1 1 2.</_></rects>
      <tilted>0</tilted></_>
    <_>
      <rects>
        <_>
          7 7 3 1 -1.</_>
        <_>
          8 7 1 1 3.</_></rects>
      <tilted>0</tilted></_>
    <_>
      <rects>
        <_>
          7 7 1 3 -1.</_>
        <_>
          7 8 1 1 3.</_></rects>
      <tilted>0</tilted></_>
    <_>
      <rects>
        <_>
          7 7 2 2 -1.</_>
        <_>
          7 7 1 1 2.</_>
        <_>
          8 8 1 1 2.</_></rects>
      <tilted>0</tilted></_>
    <_>
      <rects>
        <_>
          7 7 3 2 -1.</_>
        <_>
          8 7 1 2 3.</_></rects>
      <tilted>0</tilted></_>
    <_>
      <rects>
        <_>
          7 7 2 4 -1.</_>
        <_>
          7 7 1 2 2.</_>
        <_>
          8 9 1 2 2.</_></rects>
      <tilted>0</tilted></_>
    <_>
      <rects>
        <_>
          7 8 2 1 -1.</_>
        <_>
          8 8 1 1 2.</_></rects>
      <tilted>0</tilted></_>
    <_>
      <rects>
        <_>
          7 8 1 2 -1.</_>
        <_>
          7 9 1 1 2.</_></rects>
      <tilted>0</tilted></_>
    <_>
      <rects>
        <_>
          7 8 2 2 -1.</_>
        <_>
          7 8 1 1 2.</_>
        <_>
          8 9 1 1 2.</_></rects>
      <tilted>0</tilted></_>
    <_>
      <rects>
        <_>
          7 10 5 4 -1.</_>
        <_>
          7 12 5 2 2.</_></rects>
      <tilted>0</tilted></_>
    <_>
      <rects>
        <_>
          7 11 6 4 -1.</_>
        <_>
          7 13 6 2 2.</_></rects>
      <tilted>0</tilted></_>
    <_>
      <rects>
        <_>
          8 3 2 12 -1.</_>
        <_>
          8 7 2 4 3.</_></rects>
      <tilted>0</tilted></_>
    <_>
      <rects>
        <_>
          8 4 2 6 -1.</_>
        <_>
          8 4 1 3 2.</_>
        <_>
          9 7 1 3 2.</_></rects>
      <tilted>0</tilted></_>
    <_>
      <rects>
        <_>
          8 5 2 6 -1.</_>
        <_>
          8 5 1 3 2.</_>
        <_>
          9 8 1 3 2.</_></rects>
      <tilted>0</tilted></_>
    <_>
      <rects>
        <_>
          8 5 3 6 -1.</_>
        <_>
          8 8 3 3 2.</_></rects>
      <tilted>0</tilted></_>
    <_>
      <rects>
        <_>
          8 6 1 3 -1.</_>
        <_>
          8 7 1 1 3.</_></rects>
      <tilted>0</tilted></_>
    <_>
      <rects>
        <_>
          8 6 2 2 -1.</_>
        <_>
          8 6 1 1 2.</_>
        <_>
          9 7 1 1 2.</_></rects>
      <tilted>0</tilted></_>
    <_>
      <rects>
        <_>
          8 7 1 2 -1.</_>
        <_>
          8 8 1 1 2.</_></rects>
      <tilted>0</tilted></_>
    <_>
      <rects>
        <_>
          8 7 1 3 -1.</_>
        <_>
          8 8 1 1 3.</_></rects>
      <tilted>0</tilted></_>
    <_>
      <rects>
        <_>
          8 7 3 2 -1.</_>
        <_>
          9 7 1 2 3.</_></rects>
      <tilted>0</tilted></_>
    <_>
      <rects>
        <_>
          8 8 2 2 -1.</_>
        <_>
          8 8 1 1 2.</_>
        <_>
          9 9 1 1 2.</_></rects>
      <tilted>0</tilted></_>
    <_>
      <rects>
        <_>
          8 8 6 3 -1.</_>
        <_>
          10 8 2 3 3.</_></rects>
      <tilted>0</tilted></_>
    <_>
      <rects>
        <_>
          9 6 2 1 -1.</_>
        <_>
          10 6 1 1 2.</_></rects>
      <tilted>0</tilted></_>
    <_>
      <rects>
        <_>
          9 7 2 1 -1.</_>
        <_>
          10 7 1 1 2.</_></rects>
      <tilted>0</tilted></_>
    <_>
      <rects>
        <_>
          9 7 1 2 -1.</_>
        <_>
          9 8 1 1 2.</_></rects>
      <tilted>0</tilted></_>
    <_>
      <rects>
        <_>
          9 7 1 3 -1.</_>
        <_>
          9 8 1 1 3.</_></rects>
      <tilted>0</tilted></_>
    <_>
      <rects>
        <_>
          10 9 3 2 -1.</_>
        <_>
          11 9 1 2 3.</_></rects>
      <tilted>0</tilted></_></features></cascade>
</opencv_storage>
