<?xml version="1.0"?>
<opencv_storage>
<cascade>
  <stageType>BOOST</stageType>
  <featureType>HAAR</featureType>
  <height>18</height>
  <width>18</width>
  <stageParams>
    <boostType>GAB</boostType>
    <minHitRate>9.9500000476837158e-01</minHitRate>
    <maxFalseAlarm>5.0000000000000000e-01</maxFalseAlarm>
    <weightTrimRate>9.4999999999999996e-01</weightTrimRate>
    <maxDepth>1</maxDepth>
    <maxWeakCount>100</maxWeakCount></stageParams>
  <featureParams>
    <maxCatCount>0</maxCatCount>
    <featSize>1</featSize>
    <mode>BASIC</mode></featureParams>
  <stageNum>10</stageNum>
  <stages>
    <!-- stage 0 -->
    <_>
      <maxWeakCount>3</maxWeakCount>
      <stageThreshold>-7.4244254827499390e-01</stageThreshold>
      <weakClassifiers>
        <_>
          <internalNodes>
            0 -1 68 -4.8564922064542770e-02</internalNodes>
          <leafValues>
            8.8998764753341675e-01 -8.1841433048248291e-01</leafValues></_>
        <_>
          <internalNodes>
            0 -1 39 -1.8368342891335487e-02</internalNodes>
          <leafValues>
            9.0763264894485474e-01 -5.6137400865554810e-01</leafValues></_>
        <_>
          <internalNodes>
            0 -1 3 -2.3174239322543144e-02</internalNodes>
          <leafValues>
            6.3734579086303711e-01 -5.9443712234497070e-01</leafValues></_></weakClassifiers></_>
    <!-- stage 1 -->
    <_>
      <maxWeakCount>5</maxWeakCount>
      <stageThreshold>-1.2400668859481812e+00</stageThreshold>
      <weakClassifiers>
        <_>
          <internalNodes>
            0 -1 70 4.3705545365810394e-02</internalNodes>
          <leafValues>
            -6.3615816831588745e-01 8.9966994524002075e-01</leafValues></_>
        <_>
          <internalNodes>
            0 -1 38 -5.8875478804111481e-02</internalNodes>
          <leafValues>
            8.3663564920425415e-01 -4.2143306136131287e-01</leafValues></_>
        <_>
          <internalNodes>
            0 -1 55 -5.0215866416692734e-02</internalNodes>
          <leafValues>
            6.0855859518051147e-01 -5.0394743680953979e-01</leafValues></_>
        <_>
          <internalNodes>
            0 -1 62 1.1222762987017632e-02</internalNodes>
          <leafValues>
            -3.2776680588722229e-01 7.7281981706619263e-01</leafValues></_>
        <_>
          <internalNodes>
            0 -1 28 7.1636058390140533e-02</internalNodes>
          <leafValues>
            -3.5171398520469666e-01 6.4923864603042603e-01</leafValues></_></weakClassifiers></_>
    <!-- stage 2 -->
    <_>
      <maxWeakCount>5</maxWeakCount>
      <stageThreshold>-8.1884771585464478e-01</stageThreshold>
      <weakClassifiers>
        <_>
          <internalNodes>
            0 -1 75 3.0154302716255188e-02</internalNodes>
          <leafValues>
            -5.4083883762359619e-01 8.6345380544662476e-01</leafValues></_>
        <_>
          <internalNodes>
            0 -1 84 -3.1584553420543671e-02</internalNodes>
          <leafValues>
            7.5792413949966431e-01 -4.0582144260406494e-01</leafValues></_>
        <_>
          <internalNodes>
            0 -1 61 -3.1480431556701660e-02</internalNodes>
          <leafValues>
            6.5311914682388306e-01 -2.9983255267143250e-01</leafValues></_>
        <_>
          <internalNodes>
            0 -1 65 3.4387715160846710e-02</internalNodes>
          <leafValues>
            -2.7075597643852234e-01 6.6249495744705200e-01</leafValues></_>
        <_>
          <internalNodes>
            0 -1 20 -1.9683074206113815e-02</internalNodes>
          <leafValues>
            7.5260394811630249e-01 -2.3484984040260315e-01</leafValues></_></weakClassifiers></_>
    <!-- stage 3 -->
    <_>
      <maxWeakCount>10</maxWeakCount>
      <stageThreshold>-1.0733028650283813e+00</stageThreshold>
      <weakClassifiers>
        <_>
          <internalNodes>
            0 -1 17 -9.4491139054298401e-02</internalNodes>
          <leafValues>
            8.0298119783401489e-01 -5.1225203275680542e-01</leafValues></_>
        <_>
          <internalNodes>
            0 -1 83 -5.7256940752267838e-02</internalNodes>
          <leafValues>
            7.8364819288253784e-01 -3.3606079220771790e-01</leafValues></_>
        <_>
          <internalNodes>
            0 -1 81 6.1951288953423500e-03</internalNodes>
          <leafValues>
            -2.9856520891189575e-01 4.5969468355178833e-01</leafValues></_>
        <_>
          <internalNodes>
            0 -1 51 6.9522507488727570e-02</internalNodes>
          <leafValues>
            -2.4349622428417206e-01 6.0638725757598877e-01</leafValues></_>
        <_>
          <internalNodes>
            0 -1 30 -1.3383070006966591e-02</internalNodes>
          <leafValues>
            5.9422355890274048e-01 -2.8071624040603638e-01</leafValues></_>
        <_>
          <internalNodes>
            0 -1 21 -1.3340355455875397e-01</internalNodes>
          <leafValues>
            9.0512257814407349e-01 -1.2589077651500702e-01</leafValues></_>
        <_>
          <internalNodes>
            0 -1 25 -1.5061840415000916e-02</internalNodes>
          <leafValues>
            5.3928953409194946e-01 -2.6666739583015442e-01</leafValues></_>
        <_>
          <internalNodes>
            0 -1 60 8.6896866559982300e-04</internalNodes>
          <leafValues>
            1.9935038685798645e-01 -7.4552714824676514e-01</leafValues></_>
        <_>
          <internalNodes>
            0 -1 19 -1.6775809228420258e-02</internalNodes>
          <leafValues>
            6.4998269081115723e-01 -2.2709481418132782e-01</leafValues></_>
        <_>
          <internalNodes>
            0 -1 6 5.6305723264813423e-03</internalNodes>
          <leafValues>
            2.1213331818580627e-01 -7.3509895801544189e-01</leafValues></_></weakClassifiers></_>
    <!-- stage 4 -->
    <_>
      <maxWeakCount>8</maxWeakCount>
      <stageThreshold>-9.7437626123428345e-01</stageThreshold>
      <weakClassifiers>
        <_>
          <internalNodes>
            0 -1 67 4.9295231699943542e-02</internalNodes>
          <leafValues>
            -4.8241207003593445e-01 7.3815459012985229e-01</leafValues></_>
        <_>
          <internalNodes>
            0 -1 91 3.1059477478265762e-02</internalNodes>
          <leafValues>
            -3.3196291327476501e-01 7.7432990074157715e-01</leafValues></_>
        <_>
          <internalNodes>
            0 -1 80 1.2930124066770077e-03</internalNodes>
          <leafValues>
            -5.9006249904632568e-01 3.3184841275215149e-01</leafValues></_>
        <_>
          <internalNodes>
            0 -1 41 -4.7582659870386124e-02</internalNodes>
          <leafValues>
            8.1323885917663574e-01 -2.4224881827831268e-01</leafValues></_>
        <_>
          <internalNodes>
            0 -1 31 -4.1957646608352661e-02</internalNodes>
          <leafValues>
            6.4889895915985107e-01 -2.4805273115634918e-01</leafValues></_>
        <_>
          <internalNodes>
            0 -1 44 -3.3174142241477966e-02</internalNodes>
          <leafValues>
            6.3330233097076416e-01 -2.0991165935993195e-01</leafValues></_>
        <_>
          <internalNodes>
            0 -1 69 4.1652552783489227e-02</internalNodes>
          <leafValues>
            -2.1319553256034851e-01 6.2678039073944092e-01</leafValues></_>
        <_>
          <internalNodes>
            0 -1 42 -8.5161365568637848e-03</internalNodes>
          <leafValues>
            4.2155903577804565e-01 -3.8391643762588501e-01</leafValues></_></weakClassifiers></_>
    <!-- stage 5 -->
    <_>
      <maxWeakCount>15</maxWeakCount>
      <stageThreshold>-1.2944591045379639e+00</stageThreshold>
      <weakClassifiers>
        <_>
          <internalNodes>
            0 -1 66 -1.3511264324188232e-01</internalNodes>
          <leafValues>
            7.7937996387481689e-01 -2.7739387750625610e-01</leafValues></_>
        <_>
          <internalNodes>
            0 -1 15 -1.0302408784627914e-01</internalNodes>
          <leafValues>
            6.0245168209075928e-01 -3.5922101140022278e-01</leafValues></_>
        <_>
          <internalNodes>
            0 -1 50 1.7584878951311111e-02</internalNodes>
          <leafValues>
            -2.7791947126388550e-01 5.5300116539001465e-01</leafValues></_>
        <_>
          <internalNodes>
            0 -1 57 -1.5091612935066223e-01</internalNodes>
          <leafValues>
            8.3900225162506104e-01 -1.4463929831981659e-01</leafValues></_>
        <_>
          <internalNodes>
            0 -1 88 2.7387410402297974e-02</internalNodes>
          <leafValues>
            -3.6953806877136230e-01 4.0717151761054993e-01</leafValues></_>
        <_>
          <internalNodes>
            0 -1 2 -4.0006764233112335e-02</internalNodes>
          <leafValues>
            3.0889624357223511e-01 -3.8997155427932739e-01</leafValues></_>
        <_>
          <internalNodes>
            0 -1 90 1.0964807588607073e-03</internalNodes>
          <leafValues>
            1.3649846613407135e-01 -7.4806147813796997e-01</leafValues></_>
        <_>
          <internalNodes>
            0 -1 5 3.2191022764891386e-03</internalNodes>
          <leafValues>
            1.2160079926252365e-01 -7.9534375667572021e-01</leafValues></_>
        <_>
          <internalNodes>
            0 -1 13 -1.1638728901743889e-02</internalNodes>
          <leafValues>
            5.2853685617446899e-01 -2.1974337100982666e-01</leafValues></_>
        <_>
          <internalNodes>
            0 -1 78 -1.2794140726327896e-02</internalNodes>
          <leafValues>
            6.6730618476867676e-01 -1.6863720118999481e-01</leafValues></_>
        <_>
          <internalNodes>
            0 -1 59 4.2696672608144581e-04</internalNodes>
          <leafValues>
            1.9094838201999664e-01 -6.8448770046234131e-01</leafValues></_>
        <_>
          <internalNodes>
            0 -1 49 1.9145352765917778e-02</internalNodes>
          <leafValues>
            -1.5830382704734802e-01 7.5127929449081421e-01</leafValues></_>
        <_>
          <internalNodes>
            0 -1 93 -3.8730956614017487e-02</internalNodes>
          <leafValues>
            6.7691898345947266e-01 -1.5648192167282104e-01</leafValues></_>
        <_>
          <internalNodes>
            0 -1 72 2.5346558541059494e-02</internalNodes>
          <leafValues>
            -1.5323692560195923e-01 7.6450222730636597e-01</leafValues></_>
        <_>
          <internalNodes>
            0 -1 1 3.6475127562880516e-03</internalNodes>
          <leafValues>
            1.8329949676990509e-01 -7.2279578447341919e-01</leafValues></_></weakClassifiers></_>
    <!-- stage 6 -->
    <_>
      <maxWeakCount>14</maxWeakCount>
      <stageThreshold>-1.0565155744552612e+00</stageThreshold>
      <weakClassifiers>
        <_>
          <internalNodes>
            0 -1 53 8.2078412175178528e-02</internalNodes>
          <leafValues>
            -3.9541548490524292e-01 6.3219743967056274e-01</leafValues></_>
        <_>
          <internalNodes>
            0 -1 71 -1.1863204836845398e-01</internalNodes>
          <leafValues>
            8.0838400125503540e-01 -1.8063166737556458e-01</leafValues></_>
        <_>
          <internalNodes>
            0 -1 37 7.7854260802268982e-02</internalNodes>
          <leafValues>
            -1.7047083377838135e-01 7.8503888845443726e-01</leafValues></_>
        <_>
          <internalNodes>
            0 -1 63 -3.5125680267810822e-02</internalNodes>
          <leafValues>
            6.9067782163619995e-01 -2.1224890649318695e-01</leafValues></_>
        <_>
          <internalNodes>
            0 -1 4 -5.5993400514125824e-02</internalNodes>
          <leafValues>
            8.0291956663131714e-01 -1.5496832132339478e-01</leafValues></_>
        <_>
          <internalNodes>
            0 -1 47 6.9078579545021057e-03</internalNodes>
          <leafValues>
            -2.1626524627208710e-01 5.1578909158706665e-01</leafValues></_>
        <_>
          <internalNodes>
            0 -1 74 4.4668298214673996e-03</internalNodes>
          <leafValues>
            1.9465240836143494e-01 -6.9680219888687134e-01</leafValues></_>
        <_>
          <internalNodes>
            0 -1 99 2.2576730698347092e-03</internalNodes>
          <leafValues>
            1.5231367945671082e-01 -6.8917667865753174e-01</leafValues></_>
        <_>
          <internalNodes>
            0 -1 87 -4.8863243137020618e-05</internalNodes>
          <leafValues>
            1.9292755424976349e-01 -4.8600208759307861e-01</leafValues></_>
        <_>
          <internalNodes>
            0 -1 101 1.5327292494475842e-03</internalNodes>
          <leafValues>
            1.1518318951129913e-01 -6.9540637731552124e-01</leafValues></_>
        <_>
          <internalNodes>
            0 -1 34 7.0306879933923483e-04</internalNodes>
          <leafValues>
            -4.4163528084754944e-01 1.9404178857803345e-01</leafValues></_>
        <_>
          <internalNodes>
            0 -1 29 8.9144527912139893e-02</internalNodes>
          <leafValues>
            -2.0578496158123016e-01 5.1894229650497437e-01</leafValues></_>
        <_>
          <internalNodes>
            0 -1 95 4.8152054660022259e-03</internalNodes>
          <leafValues>
            1.5012674033641815e-01 -7.5636565685272217e-01</leafValues></_>
        <_>
          <internalNodes>
            0 -1 27 -2.7325395494699478e-03</internalNodes>
          <leafValues>
            -7.2386944293975830e-01 1.1570154130458832e-01</leafValues></_></weakClassifiers></_>
    <!-- stage 7 -->
    <_>
      <maxWeakCount>16</maxWeakCount>
      <stageThreshold>-1.4222888946533203e+00</stageThreshold>
      <weakClassifiers>
        <_>
          <internalNodes>
            0 -1 77 5.0862707197666168e-02</internalNodes>
          <leafValues>
            -3.1933701038360596e-01 7.2842806577682495e-01</leafValues></_>
        <_>
          <internalNodes>
            0 -1 36 3.4636300057172775e-02</internalNodes>
          <leafValues>
            -2.1176578104496002e-01 6.7673546075820923e-01</leafValues></_>
        <_>
          <internalNodes>
            0 -1 64 -2.4115890264511108e-02</internalNodes>
          <leafValues>
            2.9086607694625854e-01 -5.5368095636367798e-01</leafValues></_>
        <_>
          <internalNodes>
            0 -1 92 -4.7892481088638306e-02</internalNodes>
          <leafValues>
            5.8353692293167114e-01 -2.1347503364086151e-01</leafValues></_>
        <_>
          <internalNodes>
            0 -1 79 1.0904438793659210e-02</internalNodes>
          <leafValues>
            -2.7198821306228638e-01 5.9194755554199219e-01</leafValues></_>
        <_>
          <internalNodes>
            0 -1 48 4.8203729093074799e-03</internalNodes>
          <leafValues>
            -1.5701873600482941e-01 5.1780068874359131e-01</leafValues></_>
        <_>
          <internalNodes>
            0 -1 46 -3.5924583673477173e-02</internalNodes>
          <leafValues>
            8.0363744497299194e-01 -1.4950986206531525e-01</leafValues></_>
        <_>
          <internalNodes>
            0 -1 94 -1.8226170213893056e-03</internalNodes>
          <leafValues>
            -5.2713191509246826e-01 2.1021406352519989e-01</leafValues></_>
        <_>
          <internalNodes>
            0 -1 7 -1.6740802675485611e-02</internalNodes>
          <leafValues>
            6.5073162317276001e-01 -1.8383295834064484e-01</leafValues></_>
        <_>
          <internalNodes>
            0 -1 96 3.8908510468900204e-03</internalNodes>
          <leafValues>
            1.9964294135570526e-01 -5.7831132411956787e-01</leafValues></_>
        <_>
          <internalNodes>
            0 -1 40 6.3399970531463623e-02</internalNodes>
          <leafValues>
            -1.5288423001766205e-01 7.0465058088302612e-01</leafValues></_>
        <_>
          <internalNodes>
            0 -1 12 -2.3682020604610443e-02</internalNodes>
          <leafValues>
            6.0454165935516357e-01 -1.5149043500423431e-01</leafValues></_>
        <_>
          <internalNodes>
            0 -1 45 -3.0460458248853683e-02</internalNodes>
          <leafValues>
            6.5407055616378784e-01 -1.5220259130001068e-01</leafValues></_>
        <_>
          <internalNodes>
            0 -1 86 -8.0220941454172134e-03</internalNodes>
          <leafValues>
            4.4499006867408752e-01 -1.9852821528911591e-01</leafValues></_>
        <_>
          <internalNodes>
            0 -1 14 -1.7914690542966127e-03</internalNodes>
          <leafValues>
            -6.6916126012802124e-01 1.3163028657436371e-01</leafValues></_>
        <_>
          <internalNodes>
            0 -1 23 -8.8413655757904053e-02</internalNodes>
          <leafValues>
            9.0213966369628906e-01 -1.1199786514043808e-01</leafValues></_></weakClassifiers></_>
    <!-- stage 8 -->
    <_>
      <maxWeakCount>15</maxWeakCount>
      <stageThreshold>-1.1290029287338257e+00</stageThreshold>
      <weakClassifiers>
        <_>
          <internalNodes>
            0 -1 73 -7.0618659257888794e-02</internalNodes>
          <leafValues>
            7.0244562625885010e-01 -2.5215518474578857e-01</leafValues></_>
        <_>
          <internalNodes>
            0 -1 85 -6.1260513961315155e-02</internalNodes>
          <leafValues>
            7.9546451568603516e-01 -1.4444765448570251e-01</leafValues></_>
        <_>
          <internalNodes>
            0 -1 62 1.8880305811762810e-02</internalNodes>
          <leafValues>
            -2.0459309220314026e-01 7.0146995782852173e-01</leafValues></_>
        <_>
          <internalNodes>
            0 -1 97 1.4299876987934113e-02</internalNodes>
          <leafValues>
            1.8502686917781830e-01 -6.8167072534561157e-01</leafValues></_>
        <_>
          <internalNodes>
            0 -1 56 -1.0614593513309956e-02</internalNodes>
          <leafValues>
            6.4137285947799683e-01 -2.0402809977531433e-01</leafValues></_>
        <_>
          <internalNodes>
            0 -1 33 -3.1404040753841400e-02</internalNodes>
          <leafValues>
            8.0965673923492432e-01 -1.7062310874462128e-01</leafValues></_>
        <_>
          <internalNodes>
            0 -1 76 6.2104314565658569e-03</internalNodes>
          <leafValues>
            -3.8632932305335999e-01 4.0629512071609497e-01</leafValues></_>
        <_>
          <internalNodes>
            0 -1 16 -1.6224378347396851e-01</internalNodes>
          <leafValues>
            4.6695983409881592e-01 -2.0955581963062286e-01</leafValues></_>
        <_>
          <internalNodes>
            0 -1 58 5.4219115525484085e-02</internalNodes>
          <leafValues>
            -1.1272116005420685e-01 8.1043028831481934e-01</leafValues></_>
        <_>
          <internalNodes>
            0 -1 54 5.5597186088562012e-02</internalNodes>
          <leafValues>
            -1.3162571191787720e-01 7.5814706087112427e-01</leafValues></_>
        <_>
          <internalNodes>
            0 -1 32 5.7890407741069794e-02</internalNodes>
          <leafValues>
            -1.6467076539993286e-01 6.9505131244659424e-01</leafValues></_>
        <_>
          <internalNodes>
            0 -1 98 1.7225516960024834e-02</internalNodes>
          <leafValues>
            1.6864126920700073e-01 -6.5295439958572388e-01</leafValues></_>
        <_>
          <internalNodes>
            0 -1 35 2.0865760743618011e-03</internalNodes>
          <leafValues>
            -2.4094265699386597e-01 3.7178087234497070e-01</leafValues></_>
        <_>
          <internalNodes>
            0 -1 8 -3.3234905451536179e-02</internalNodes>
          <leafValues>
            5.4657244682312012e-01 -2.1804775297641754e-01</leafValues></_>
        <_>
          <internalNodes>
            0 -1 102 -1.2255202746018767e-03</internalNodes>
          <leafValues>
            -5.7969611883163452e-01 1.7142030596733093e-01</leafValues></_></weakClassifiers></_>
    <!-- stage 9 -->
    <_>
      <maxWeakCount>17</maxWeakCount>
      <stageThreshold>-9.1856968402862549e-01</stageThreshold>
      <weakClassifiers>
        <_>
          <internalNodes>
            0 -1 66 -1.1970464885234833e-01</internalNodes>
          <leafValues>
            5.8275055885314941e-01 -2.9239764809608459e-01</leafValues></_>
        <_>
          <internalNodes>
            0 -1 89 -6.4104229211807251e-02</internalNodes>
          <leafValues>
            5.0110238790512085e-01 -2.1358019113540649e-01</leafValues></_>
        <_>
          <internalNodes>
            0 -1 11 -3.6873422563076019e-02</internalNodes>
          <leafValues>
            5.8253884315490723e-01 -1.7403642833232880e-01</leafValues></_>
        <_>
          <internalNodes>
            0 -1 22 -1.2168315052986145e-01</internalNodes>
          <leafValues>
            8.3708715438842773e-01 -1.6639678180217743e-01</leafValues></_>
        <_>
          <internalNodes>
            0 -1 26 -1.1632971465587616e-02</internalNodes>
          <leafValues>
            4.3023237586021423e-01 -2.5470587611198425e-01</leafValues></_>
        <_>
          <internalNodes>
            0 -1 52 7.2156473994255066e-02</internalNodes>
          <leafValues>
            -2.2700461745262146e-01 4.6359187364578247e-01</leafValues></_>
        <_>
          <internalNodes>
            0 -1 81 7.2294631972908974e-03</internalNodes>
          <leafValues>
            -3.8675168156623840e-01 2.6794007420539856e-01</leafValues></_>
        <_>
          <internalNodes>
            0 -1 82 1.6904431395232677e-03</internalNodes>
          <leafValues>
            2.8519973158836365e-01 -3.6598503589630127e-01</leafValues></_>
        <_>
          <internalNodes>
            0 -1 9 -1.0139879304915667e-03</internalNodes>
          <leafValues>
            -6.5945637226104736e-01 1.3203126192092896e-01</leafValues></_>
        <_>
          <internalNodes>
            0 -1 0 1.9747684709727764e-03</internalNodes>
          <leafValues>
            1.0945526510477066e-01 -8.1850278377532959e-01</leafValues></_>
        <_>
          <internalNodes>
            0 -1 100 2.0104397553950548e-03</internalNodes>
          <leafValues>
            1.0402054339647293e-01 -7.8002989292144775e-01</leafValues></_>
        <_>
          <internalNodes>
            0 -1 10 1.2508920626714826e-03</internalNodes>
          <leafValues>
            1.2884248793125153e-01 -5.6856548786163330e-01</leafValues></_>
        <_>
          <internalNodes>
            0 -1 44 -3.4675836563110352e-02</internalNodes>
          <leafValues>
            4.6705535054206848e-01 -1.8258158862590790e-01</leafValues></_>
        <_>
          <internalNodes>
            0 -1 44 5.2037075161933899e-02</internalNodes>
          <leafValues>
            -1.7986491322517395e-01 6.1574715375900269e-01</leafValues></_>
        <_>
          <internalNodes>
            0 -1 43 -2.1375905722379684e-02</internalNodes>
          <leafValues>
            6.1573308706283569e-01 -1.1862367391586304e-01</leafValues></_>
        <_>
          <internalNodes>
            0 -1 24 -4.3358422815799713e-02</internalNodes>
          <leafValues>
            8.3362680673599243e-01 -1.0949658602476120e-01</leafValues></_>
        <_>
          <internalNodes>
            0 -1 18 1.6992357559502125e-03</internalNodes>
          <leafValues>
            1.9006687402725220e-01 -6.5066921710968018e-01</leafValues></_></weakClassifiers></_></stages>
  <features>
    <_>
      <rects>
        <_>
          0 1 3 1 -1.</_>
        <_>
          1 1 1 1 3.</_></rects>
      <tilted>0</tilted></_>
    <_>
      <rects>
        <_>
          0 2 2 6 -1.</_>
        <_>
          0 2 1 3 2.</_>
        <_>
          1 5 1 3 2.</_></rects>
      <tilted>0</tilted></_>
    <_>
      <rects>
        <_>
          0 2 14 6 -1.</_>
        <_>
          0 2 7 3 2.</_>
        <_>
          7 5 7 3 2.</_></rects>
      <tilted>0</tilted></_>
    <_>
      <rects>
        <_>
          0 3 12 6 -1.</_>
        <_>
          0 3 6 3 2.</_>
        <_>
          6 6 6 3 2.</_></rects>
      <tilted>0</tilted></_>
    <_>
      <rects>
        <_>
          0 5 8 6 -1.</_>
        <_>
          0 5 4 3 2.</_>
        <_>
          4 8 4 3 2.</_></rects>
      <tilted>0</tilted></_>
    <_>
      <rects>
        <_>
          0 16 3 2 -1.</_>
        <_>
          1 16 1 2 3.</_></rects>
      <tilted>0</tilted></_>
    <_>
      <rects>
        <_>
          1 0 8 3 -1.</_>
        <_>
          1 1 8 1 3.</_></rects>
      <tilted>0</tilted></_>
    <_>
      <rects>
        <_>
          1 4 12 2 -1.</_>
        <_>
          1 4 6 1 2.</_>
        <_>
          7 5 6 1 2.</_></rects>
      <tilted>0</tilted></_>
    <_>
      <rects>
        <_>
          1 8 9 5 -1.</_>
        <_>
          4 8 3 5 3.</_></rects>
      <tilted>0</tilted></_>
    <_>
      <rects>
        <_>
          1 12 2 2 -1.</_>
        <_>
          1 12 1 1 2.</_>
        <_>
          2 13 1 1 2.</_></rects>
      <tilted>0</tilted></_>
    <_>
      <rects>
        <_>
          1 14 3 1 -1.</_>
        <_>
          2 14 1 1 3.</_></rects>
      <tilted>0</tilted></_>
    <_>
      <rects>
        <_>
          2 2 10 4 -1.</_>
        <_>
          2 2 5 2 2.</_>
        <_>
          7 4 5 2 2.</_></rects>
      <tilted>0</tilted></_>
    <_>
      <rects>
        <_>
          2 7 4 4 -1.</_>
        <_>
          4 7 2 4 2.</_></rects>
      <tilted>0</tilted></_>
    <_>
      <rects>
        <_>
          2 8 6 3 -1.</_>
        <_>
          4 8 2 3 3.</_></rects>
      <tilted>0</tilted></_>
    <_>
      <rects>
        <_>
          3 2 4 2 -1.</_>
        <_>
          3 2 2 1 2.</_>
        <_>
          5 3 2 1 2.</_></rects>
      <tilted>0</tilted></_>
    <_>
      <rects>
        <_>
          3 7 15 2 -1.</_>
        <_>
          8 7 5 2 3.</_></rects>
      <tilted>0</tilted></_>
    <_>
      <rects>
        <_>
          3 8 15 3 -1.</_>
        <_>
          8 8 5 3 3.</_></rects>
      <tilted>0</tilted></_>
    <_>
      <rects>
        <_>
          4 7 12 3 -1.</_>
        <_>
          8 7 4 3 3.</_></rects>
      <tilted>0</tilted></_>
    <_>
      <rects>
        <_>
          4 9 3 1 -1.</_>
        <_>
          5 9 1 1 3.</_></rects>
      <tilted>0</tilted></_>
    <_>
      <rects>
        <_>
          4 11 8 4 -1.</_>
        <_>
          4 11 4 2 2.</_>
        <_>
          8 13 4 2 2.</_></rects>
      <tilted>0</tilted></_>
    <_>
      <rects>
        <_>
          5 2 6 4 -1.</_>
        <_>
          5 2 3 2 2.</_>
        <_>
          8 4 3 2 2.</_></rects>
      <tilted>0</tilted></_>
    <_>
      <rects>
        <_>
          5 5 5 9 -1.</_>
        <_>
          5 8 5 3 3.</_></rects>
      <tilted>0</tilted></_>
    <_>
      <rects>
        <_>
          5 6 4 9 -1.</_>
        <_>
          5 9 4 3 3.</_></rects>
      <tilted>0</tilted></_>
    <_>
      <rects>
        <_>
          5 7 3 9 -1.</_>
        <_>
          5 10 3 3 3.</_></rects>
      <tilted>0</tilted></_>
    <_>
      <rects>
        <_>
          5 8 2 9 -1.</_>
        <_>
          5 11 2 3 3.</_></rects>
      <tilted>0</tilted></_>
    <_>
      <rects>
        <_>
          5 10 6 6 -1.</_>
        <_>
          5 12 6 2 3.</_></rects>
      <tilted>0</tilted></_>
    <_>
      <rects>
        <_>
          5 10 7 6 -1.</_>
        <_>
          5 12 7 2 3.</_></rects>
      <tilted>0</tilted></_>
    <_>
      <rects>
        <_>
          6 0 2 4 -1.</_>
        <_>
          6 0 1 2 2.</_>
        <_>
          7 2 1 2 2.</_></rects>
      <tilted>0</tilted></_>
    <_>
      <rects>
        <_>
          6 0 8 9 -1.</_>
        <_>
          6 3 8 3 3.</_></rects>
      <tilted>0</tilted></_>
    <_>
      <rects>
        <_>
          6 1 7 9 -1.</_>
        <_>
          6 4 7 3 3.</_></rects>
      <tilted>0</tilted></_>
    <_>
      <rects>
        <_>
          6 2 4 4 -1.</_>
        <_>
          6 2 2 2 2.</_>
        <_>
          8 4 2 2 2.</_></rects>
      <tilted>0</tilted></_>
    <_>
      <rects>
        <_>
          6 3 2 10 -1.</_>
        <_>
          6 8 2 5 2.</_></rects>
      <tilted>0</tilted></_>
    <_>
      <rects>
        <_>
          6 3 7 6 -1.</_>
        <_>
          6 5 7 2 3.</_></rects>
      <tilted>0</tilted></_>
    <_>
      <rects>
        <_>
          6 6 1 9 -1.</_>
        <_>
          6 9 1 3 3.</_></rects>
      <tilted>0</tilted></_>
    <_>
      <rects>
        <_>
          6 6 3 4 -1.</_>
        <_>
          7 6 1 4 3.</_></rects>
      <tilted>0</tilted></_>
    <_>
      <rects>
        <_>
          6 6 3 6 -1.</_>
        <_>
          6 8 3 2 3.</_></rects>
      <tilted>0</tilted></_>
    <_>
      <rects>
        <_>
          6 6 6 6 -1.</_>
        <_>
          6 6 3 3 2.</_>
        <_>
          9 9 3 3 2.</_></rects>
      <tilted>0</tilted></_>
    <_>
      <rects>
        <_>
          6 6 6 8 -1.</_>
        <_>
          6 6 3 4 2.</_>
        <_>
          9 10 3 4 2.</_></rects>
      <tilted>0</tilted></_>
    <_>
      <rects>
        <_>
          6 7 9 3 -1.</_>
        <_>
          9 7 3 3 3.</_></rects>
      <tilted>0</tilted></_>
    <_>
      <rects>
        <_>
          6 8 9 1 -1.</_>
        <_>
          9 8 3 1 3.</_></rects>
      <tilted>0</tilted></_>
    <_>
      <rects>
        <_>
          6 8 6 6 -1.</_>
        <_>
          6 8 3 3 2.</_>
        <_>
          9 11 3 3 2.</_></rects>
      <tilted>0</tilted></_>
    <_>
      <rects>
        <_>
          6 10 6 3 -1.</_>
        <_>
          8 10 2 3 3.</_></rects>
      <tilted>0</tilted></_>
    <_>
      <rects>
        <_>
          6 10 7 6 -1.</_>
        <_>
          6 12 7 2 3.</_></rects>
      <tilted>0</tilted></_>
    <_>
      <rects>
        <_>
          6 12 6 1 -1.</_>
        <_>
          8 12 2 1 3.</_></rects>
      <tilted>0</tilted></_>
    <_>
      <rects>
        <_>
          7 3 6 6 -1.</_>
        <_>
          7 5 6 2 3.</_></rects>
      <tilted>0</tilted></_>
    <_>
      <rects>
        <_>
          7 4 2 11 -1.</_>
        <_>
          8 4 1 11 2.</_></rects>
      <tilted>0</tilted></_>
    <_>
      <rects>
        <_>
          7 5 1 9 -1.</_>
        <_>
          7 8 1 3 3.</_></rects>
      <tilted>0</tilted></_>
    <_>
      <rects>
        <_>
          7 5 2 9 -1.</_>
        <_>
          7 8 2 3 3.</_></rects>
      <tilted>0</tilted></_>
    <_>
      <rects>
        <_>
          7 5 3 9 -1.</_>
        <_>
          7 8 3 3 3.</_></rects>
      <tilted>0</tilted></_>
    <_>
      <rects>
        <_>
          7 11 6 2 -1.</_>
        <_>
          9 11 2 2 3.</_></rects>
      <tilted>0</tilted></_>
    <_>
      <rects>
        <_>
          7 11 9 2 -1.</_>
        <_>
          10 11 3 2 3.</_></rects>
      <tilted>0</tilted></_>
    <_>
      <rects>
        <_>
          8 0 4 9 -1.</_>
        <_>
          8 3 4 3 3.</_></rects>
      <tilted>0</tilted></_>
    <_>
      <rects>
        <_>
          8 0 5 9 -1.</_>
        <_>
          8 3 5 3 3.</_></rects>
      <tilted>0</tilted></_>
    <_>
      <rects>
        <_>
          8 0 10 10 -1.</_>
        <_>
          8 0 5 5 2.</_>
        <_>
          13 5 5 5 2.</_></rects>
      <tilted>0</tilted></_>
    <_>
      <rects>
        <_>
          8 2 6 6 -1.</_>
        <_>
          8 2 3 3 2.</_>
        <_>
          11 5 3 3 2.</_></rects>
      <tilted>0</tilted></_>
    <_>
      <rects>
        <_>
          8 2 3 12 -1.</_>
        <_>
          8 6 3 4 3.</_></rects>
      <tilted>0</tilted></_>
    <_>
      <rects>
        <_>
          8 3 4 2 -1.</_>
        <_>
          8 4 4 1 2.</_></rects>
      <tilted>0</tilted></_>
    <_>
      <rects>
        <_>
          8 5 4 9 -1.</_>
        <_>
          8 8 4 3 3.</_></rects>
      <tilted>0</tilted></_>
    <_>
      <rects>
        <_>
          8 6 4 8 -1.</_>
        <_>
          8 6 2 4 2.</_>
        <_>
          10 10 2 4 2.</_></rects>
      <tilted>0</tilted></_>
    <_>
      <rects>
        <_>
          8 9 3 1 -1.</_>
        <_>
          9 9 1 1 3.</_></rects>
      <tilted>0</tilted></_>
    <_>
      <rects>
        <_>
          8 9 3 2 -1.</_>
        <_>
          9 9 1 2 3.</_></rects>
      <tilted>0</tilted></_>
    <_>
      <rects>
        <_>
          8 10 6 8 -1.</_>
        <_>
          8 10 3 4 2.</_>
        <_>
          11 14 3 4 2.</_></rects>
      <tilted>0</tilted></_>
    <_>
      <rects>
        <_>
          8 11 4 2 -1.</_>
        <_>
          10 11 2 2 2.</_></rects>
      <tilted>0</tilted></_>
    <_>
      <rects>
        <_>
          8 12 6 6 -1.</_>
        <_>
          8 12 3 3 2.</_>
        <_>
          11 15 3 3 2.</_></rects>
      <tilted>0</tilted></_>
    <_>
      <rects>
        <_>
          9 0 1 12 -1.</_>
        <_>
          9 6 1 6 2.</_></rects>
      <tilted>0</tilted></_>
    <_>
      <rects>
        <_>
          9 0 2 9 -1.</_>
        <_>
          9 3 2 3 3.</_></rects>
      <tilted>0</tilted></_>
    <_>
      <rects>
        <_>
          9 0 2 18 -1.</_>
        <_>
          9 6 2 6 3.</_></rects>
      <tilted>0</tilted></_>
    <_>
      <rects>
        <_>
          9 0 6 10 -1.</_>
        <_>
          9 0 3 5 2.</_>
        <_>
          12 5 3 5 2.</_></rects>
      <tilted>0</tilted></_>
    <_>
      <rects>
        <_>
          9 1 2 15 -1.</_>
        <_>
          9 6 2 5 3.</_></rects>
      <tilted>0</tilted></_>
    <_>
      <rects>
        <_>
          9 1 3 9 -1.</_>
        <_>
          9 4 3 3 3.</_></rects>
      <tilted>0</tilted></_>
    <_>
      <rects>
        <_>
          9 1 6 10 -1.</_>
        <_>
          9 1 3 5 2.</_>
        <_>
          12 6 3 5 2.</_></rects>
      <tilted>0</tilted></_>
    <_>
      <rects>
        <_>
          9 3 2 12 -1.</_>
        <_>
          9 7 2 4 3.</_></rects>
      <tilted>0</tilted></_>
    <_>
      <rects>
        <_>
          9 6 6 2 -1.</_>
        <_>
          11 6 2 2 3.</_></rects>
      <tilted>0</tilted></_>
    <_>
      <rects>
        <_>
          9 6 6 12 -1.</_>
        <_>
          9 6 3 6 2.</_>
        <_>
          12 12 3 6 2.</_></rects>
      <tilted>0</tilted></_>
    <_>
      <rects>
        <_>
          9 7 9 3 -1.</_>
        <_>
          9 8 9 1 3.</_></rects>
      <tilted>0</tilted></_>
    <_>
      <rects>
        <_>
          9 8 6 2 -1.</_>
        <_>
          12 8 3 2 2.</_></rects>
      <tilted>0</tilted></_>
    <_>
      <rects>
        <_>
          9 8 3 6 -1.</_>
        <_>
          9 10 3 2 3.</_></rects>
      <tilted>0</tilted></_>
    <_>
      <rects>
        <_>
          9 8 6 3 -1.</_>
        <_>
          12 8 3 3 2.</_></rects>
      <tilted>0</tilted></_>
    <_>
      <rects>
        <_>
          9 9 1 9 -1.</_>
        <_>
          9 12 1 3 3.</_></rects>
      <tilted>0</tilted></_>
    <_>
      <rects>
        <_>
          9 9 6 1 -1.</_>
        <_>
          11 9 2 1 3.</_></rects>
      <tilted>0</tilted></_>
    <_>
      <rects>
        <_>
          9 9 3 2 -1.</_>
        <_>
          9 10 3 1 2.</_></rects>
      <tilted>0</tilted></_>
    <_>
      <rects>
        <_>
          9 10 4 1 -1.</_>
        <_>
          11 10 2 1 2.</_></rects>
      <tilted>0</tilted></_>
    <_>
      <rects>
        <_>
          9 12 3 2 -1.</_>
        <_>
          9 13 3 1 2.</_></rects>
      <tilted>0</tilted></_>
    <_>
      <rects>
        <_>
          10 1 1 15 -1.</_>
        <_>
          10 6 1 5 3.</_></rects>
      <tilted>0</tilted></_>
    <_>
      <rects>
        <_>
          10 2 1 12 -1.</_>
        <_>
          10 6 1 4 3.</_></rects>
      <tilted>0</tilted></_>
    <_>
      <rects>
        <_>
          10 3 1 12 -1.</_>
        <_>
          10 7 1 4 3.</_></rects>
      <tilted>0</tilted></_>
    <_>
      <rects>
        <_>
          10 4 3 11 -1.</_>
        <_>
          11 4 1 11 3.</_></rects>
      <tilted>0</tilted></_>
    <_>
      <rects>
        <_>
          10 6 1 3 -1.</_>
        <_>
          10 7 1 1 3.</_></rects>
      <tilted>0</tilted></_>
    <_>
      <rects>
        <_>
          10 7 6 4 -1.</_>
        <_>
          12 7 2 4 3.</_></rects>
      <tilted>0</tilted></_>
    <_>
      <rects>
        <_>
          10 7 6 8 -1.</_>
        <_>
          10 7 3 4 2.</_>
        <_>
          13 11 3 4 2.</_></rects>
      <tilted>0</tilted></_>
    <_>
      <rects>
        <_>
          10 8 1 3 -1.</_>
        <_>
          10 9 1 1 3.</_></rects>
      <tilted>0</tilted></_>
    <_>
      <rects>
        <_>
          10 8 2 6 -1.</_>
        <_>
          10 11 2 3 2.</_></rects>
      <tilted>0</tilted></_>
    <_>
      <rects>
        <_>
          10 8 6 6 -1.</_>
        <_>
          10 8 3 3 2.</_>
        <_>
          13 11 3 3 2.</_></rects>
      <tilted>0</tilted></_>
    <_>
      <rects>
        <_>
          11 7 4 8 -1.</_>
        <_>
          11 7 2 4 2.</_>
        <_>
          13 11 2 4 2.</_></rects>
      <tilted>0</tilted></_>
    <_>
      <rects>
        <_>
          11 12 4 2 -1.</_>
        <_>
          11 12 2 1 2.</_>
        <_>
          13 13 2 1 2.</_></rects>
      <tilted>0</tilted></_>
    <_>
      <rects>
        <_>
          13 5 4 3 -1.</_>
        <_>
          13 6 4 1 3.</_></rects>
      <tilted>0</tilted></_>
    <_>
      <rects>
        <_>
          13 9 5 3 -1.</_>
        <_>
          13 10 5 1 3.</_></rects>
      <tilted>0</tilted></_>
    <_>
      <rects>
        <_>
          13 10 4 8 -1.</_>
        <_>
          13 10 2 4 2.</_>
        <_>
          15 14 2 4 2.</_></rects>
      <tilted>0</tilted></_>
    <_>
      <rects>
        <_>
          14 4 2 9 -1.</_>
        <_>
          14 7 2 3 3.</_></rects>
      <tilted>0</tilted></_>
    <_>
      <rects>
        <_>
          14 11 4 2 -1.</_>
        <_>
          14 11 2 1 2.</_>
        <_>
          16 12 2 1 2.</_></rects>
      <tilted>0</tilted></_>
    <_>
      <rects>
        <_>
          14 15 3 1 -1.</_>
        <_>
          15 15 1 1 3.</_></rects>
      <tilted>0</tilted></_>
    <_>
      <rects>
        <_>
          15 11 1 3 -1.</_>
        <_>
          15 12 1 1 3.</_></rects>
      <tilted>0</tilted></_>
    <_>
      <rects>
        <_>
          16 4 2 1 -1.</_>
        <_>
          17 4 1 1 2.</_></rects>
      <tilted>0</tilted></_></features></cascade>
</opencv_storage>
